digraph Tree {
node [shape=box, style="rounded", color="black", fontname=helvetica] ;
edge [fontname=helvetica] ;
0 [label="Fts_0 <= 54.5\nmse = 1.8\nsamples = 22052\nvalue = 1.7"] ;
1 [label="Fts_0 <= 52.5\nmse = 0.0\nsamples = 15908\nvalue = 1.0"] ;
0 -> 1 [labeldistance=2.5, labelangle=45, headlabel="True"] ;
2 [label="Fts_0 <= 37.5\nmse = 0.0\nsamples = 15088\nvalue = 1.0"] ;
1 -> 2 ;
3 [label="Fts_0 <= 36.5\nmse = 0.1\nsamples = 5112\nvalue = 1.0"] ;
2 -> 3 ;
4 [label="mse = 0.0\nsamples = 22\nvalue = 1.0"] ;
3 -> 4 ;
5 [label="mse = 0.1\nsamples = 5090\nvalue = 1.0"] ;
3 -> 5 ;
6 [label="Fts_0 <= 44.5\nmse = 0.0\nsamples = 9976\nvalue = 1.0"] ;
2 -> 6 ;
7 [label="Fts_0 <= 41.5\nmse = 0.0\nsamples = 4788\nvalue = 1.0"] ;
6 -> 7 ;
8 [label="Fts_0 <= 39.5\nmse = 0.0\nsamples = 2328\nvalue = 1.0"] ;
7 -> 8 ;
9 [label="mse = 0.0\nsamples = 832\nvalue = 1.0"] ;
8 -> 9 ;
10 [label="Fts_0 <= 40.5\nmse = 0.0\nsamples = 1496\nvalue = 1.0"] ;
8 -> 10 ;
11 [label="mse = 0.0\nsamples = 247\nvalue = 1.0"] ;
10 -> 11 ;
12 [label="mse = 0.0\nsamples = 1249\nvalue = 1.0"] ;
10 -> 12 ;
13 [label="Fts_0 <= 42.5\nmse = 0.0\nsamples = 2460\nvalue = 1.0"] ;
7 -> 13 ;
14 [label="mse = 0.0\nsamples = 521\nvalue = 1.0"] ;
13 -> 14 ;
15 [label="Fts_0 <= 43.5\nmse = 0.0\nsamples = 1939\nvalue = 1.0"] ;
13 -> 15 ;
16 [label="mse = 0.0\nsamples = 923\nvalue = 1.0"] ;
15 -> 16 ;
17 [label="mse = 0.0\nsamples = 1016\nvalue = 1.0"] ;
15 -> 17 ;
18 [label="Fts_0 <= 48.5\nmse = 0.0\nsamples = 5188\nvalue = 1.0"] ;
6 -> 18 ;
19 [label="Fts_0 <= 46.5\nmse = 0.0\nsamples = 2933\nvalue = 1.0"] ;
18 -> 19 ;
20 [label="Fts_0 <= 45.5\nmse = 0.0\nsamples = 2049\nvalue = 1.0"] ;
19 -> 20 ;
21 [label="mse = 0.0\nsamples = 1209\nvalue = 1.0"] ;
20 -> 21 ;
22 [label="mse = 0.0\nsamples = 840\nvalue = 1.0"] ;
20 -> 22 ;
23 [label="Fts_0 <= 47.5\nmse = 0.0\nsamples = 884\nvalue = 1.0"] ;
19 -> 23 ;
24 [label="mse = 0.1\nsamples = 442\nvalue = 1.0"] ;
23 -> 24 ;
25 [label="mse = 0.0\nsamples = 442\nvalue = 1.0"] ;
23 -> 25 ;
26 [label="Fts_0 <= 49.5\nmse = 0.0\nsamples = 2255\nvalue = 1.0"] ;
18 -> 26 ;
27 [label="mse = 0.0\nsamples = 956\nvalue = 1.0"] ;
26 -> 27 ;
28 [label="Fts_0 <= 50.5\nmse = 0.0\nsamples = 1299\nvalue = 1.0"] ;
26 -> 28 ;
29 [label="mse = 0.0\nsamples = 325\nvalue = 1.0"] ;
28 -> 29 ;
30 [label="Fts_0 <= 51.5\nmse = 0.0\nsamples = 974\nvalue = 1.0"] ;
28 -> 30 ;
31 [label="mse = 0.0\nsamples = 695\nvalue = 1.0"] ;
30 -> 31 ;
32 [label="mse = 0.0\nsamples = 279\nvalue = 1.0"] ;
30 -> 32 ;
33 [label="Fts_0 <= 53.5\nmse = 0.2\nsamples = 820\nvalue = 1.1"] ;
1 -> 33 ;
34 [label="mse = 0.2\nsamples = 652\nvalue = 1.1"] ;
33 -> 34 ;
35 [label="mse = 0.4\nsamples = 168\nvalue = 1.1"] ;
33 -> 35 ;
36 [label="Fts_0 <= 70.5\nmse = 2.1\nsamples = 6144\nvalue = 3.5"] ;
0 -> 36 [labeldistance=2.5, labelangle=-45, headlabel="False"] ;
37 [label="Fts_0 <= 56.5\nmse = 1.9\nsamples = 4875\nvalue = 3.1"] ;
36 -> 37 ;
38 [label="Fts_0 <= 55.5\nmse = 1.6\nsamples = 4395\nvalue = 3.3"] ;
37 -> 38 ;
39 [label="mse = 1.3\nsamples = 2275\nvalue = 3.5"] ;
38 -> 39 ;
40 [label="mse = 1.9\nsamples = 2120\nvalue = 3.1"] ;
38 -> 40 ;
41 [label="Fts_0 <= 68.5\nmse = 0.2\nsamples = 480\nvalue = 1.1"] ;
37 -> 41 ;
42 [label="Fts_0 <= 63.5\nmse = 0.1\nsamples = 476\nvalue = 1.0"] ;
41 -> 42 ;
43 [label="Fts_0 <= 57.5\nmse = 0.1\nsamples = 389\nvalue = 1.0"] ;
42 -> 43 ;
44 [label="mse = 0.2\nsamples = 114\nvalue = 1.0"] ;
43 -> 44 ;
45 [label="Fts_0 <= 58.5\nmse = 0.0\nsamples = 275\nvalue = 1.0"] ;
43 -> 45 ;
46 [label="mse = 0.0\nsamples = 126\nvalue = 1.0"] ;
45 -> 46 ;
47 [label="Fts_0 <= 60.5\nmse = 0.0\nsamples = 149\nvalue = 1.0"] ;
45 -> 47 ;
48 [label="Fts_0 <= 59.5\nmse = 0.0\nsamples = 86\nvalue = 1.0"] ;
47 -> 48 ;
49 [label="mse = 0.0\nsamples = 63\nvalue = 1.0"] ;
48 -> 49 ;
50 [label="mse = 0.0\nsamples = 23\nvalue = 1.0"] ;
48 -> 50 ;
51 [label="mse = 0.0\nsamples = 63\nvalue = 1.0"] ;
47 -> 51 ;
52 [label="Fts_0 <= 64.5\nmse = 0.4\nsamples = 87\nvalue = 1.1"] ;
42 -> 52 ;
53 [label="mse = 1.3\nsamples = 25\nvalue = 1.3"] ;
52 -> 53 ;
54 [label="Fts_0 <= 65.5\nmse = 0.1\nsamples = 62\nvalue = 1.1"] ;
52 -> 54 ;
55 [label="mse = 0.0\nsamples = 9\nvalue = 1.0"] ;
54 -> 55 ;
56 [label="Fts_0 <= 67.5\nmse = 0.1\nsamples = 53\nvalue = 1.1"] ;
54 -> 56 ;
57 [label="Fts_0 <= 66.5\nmse = 0.1\nsamples = 45\nvalue = 1.1"] ;
56 -> 57 ;
58 [label="mse = 0.1\nsamples = 37\nvalue = 1.1"] ;
57 -> 58 ;
59 [label="mse = 0.0\nsamples = 8\nvalue = 1.0"] ;
57 -> 59 ;
60 [label="mse = 0.3\nsamples = 8\nvalue = 1.1"] ;
56 -> 60 ;
61 [label="Fts_0 <= 69.5\nmse = 1.9\nsamples = 4\nvalue = 3.7"] ;
41 -> 61 ;
62 [label="mse = 0.0\nsamples = 1\nvalue = 3.0"] ;
61 -> 62 ;
63 [label="mse = 2.2\nsamples = 3\nvalue = 3.8"] ;
61 -> 63 ;
64 [label="Fts_0 <= 74.5\nmse = 0.1\nsamples = 1269\nvalue = 5.0"] ;
36 -> 64 ;
65 [label="Fts_0 <= 71.5\nmse = 0.8\nsamples = 26\nvalue = 4.5"] ;
64 -> 65 ;
66 [label="mse = 0.0\nsamples = 12\nvalue = 5.0"] ;
65 -> 66 ;
67 [label="Fts_0 <= 72.5\nmse = 1.1\nsamples = 14\nvalue = 3.9"] ;
65 -> 67 ;
68 [label="mse = 1.4\nsamples = 7\nvalue = 4.1"] ;
67 -> 68 ;
69 [label="Fts_0 <= 73.5\nmse = 0.9\nsamples = 7\nvalue = 3.7"] ;
67 -> 69 ;
70 [label="mse = 0.6\nsamples = 3\nvalue = 3.4"] ;
69 -> 70 ;
71 [label="mse = 1.0\nsamples = 4\nvalue = 4.0"] ;
69 -> 71 ;
72 [label="Fts_0 <= 98.5\nmse = 0.0\nsamples = 1243\nvalue = 5.0"] ;
64 -> 72 ;
73 [label="Fts_0 <= 88.0\nmse = 0.0\nsamples = 883\nvalue = 5.0"] ;
72 -> 73 ;
74 [label="Fts_0 <= 86.5\nmse = 0.0\nsamples = 880\nvalue = 5.0"] ;
73 -> 74 ;
75 [label="Fts_0 <= 79.5\nmse = 0.0\nsamples = 877\nvalue = 5.0"] ;
74 -> 75 ;
76 [label="Fts_0 <= 76.5\nmse = 0.1\nsamples = 237\nvalue = 5.0"] ;
75 -> 76 ;
77 [label="mse = 0.0\nsamples = 45\nvalue = 5.0"] ;
76 -> 77 ;
78 [label="Fts_0 <= 78.5\nmse = 0.1\nsamples = 192\nvalue = 5.0"] ;
76 -> 78 ;
79 [label="Fts_0 <= 77.5\nmse = 0.1\nsamples = 72\nvalue = 4.9"] ;
78 -> 79 ;
80 [label="mse = 0.1\nsamples = 29\nvalue = 5.0"] ;
79 -> 80 ;
81 [label="mse = 0.1\nsamples = 43\nvalue = 4.9"] ;
79 -> 81 ;
82 [label="mse = 0.0\nsamples = 120\nvalue = 5.0"] ;
78 -> 82 ;
83 [label="Fts_0 <= 84.5\nmse = 0.0\nsamples = 640\nvalue = 5.0"] ;
75 -> 83 ;
84 [label="Fts_0 <= 80.5\nmse = 0.0\nsamples = 499\nvalue = 5.0"] ;
83 -> 84 ;
85 [label="mse = 0.0\nsamples = 97\nvalue = 5.0"] ;
84 -> 85 ;
86 [label="Fts_0 <= 81.5\nmse = 0.0\nsamples = 402\nvalue = 5.0"] ;
84 -> 86 ;
87 [label="mse = 0.0\nsamples = 147\nvalue = 5.0"] ;
86 -> 87 ;
88 [label="Fts_0 <= 83.5\nmse = 0.0\nsamples = 255\nvalue = 5.0"] ;
86 -> 88 ;
89 [label="Fts_0 <= 82.5\nmse = 0.0\nsamples = 179\nvalue = 5.0"] ;
88 -> 89 ;
90 [label="mse = 0.0\nsamples = 122\nvalue = 5.0"] ;
89 -> 90 ;
91 [label="mse = 0.0\nsamples = 57\nvalue = 5.0"] ;
89 -> 91 ;
92 [label="mse = 0.0\nsamples = 76\nvalue = 5.0"] ;
88 -> 92 ;
93 [label="mse = 0.0\nsamples = 141\nvalue = 5.0"] ;
83 -> 93 ;
94 [label="mse = 0.9\nsamples = 3\nvalue = 4.3"] ;
74 -> 94 ;
95 [label="mse = 0.0\nsamples = 3\nvalue = 3.0"] ;
73 -> 95 ;
96 [label="mse = 0.0\nsamples = 360\nvalue = 5.0"] ;
72 -> 96 ;
}